<?xml version="1.0"?>
<opencv_storage>
<cascade>
  <stageType>BOOST</stageType>
  <featureType>HAAR</featureType>
  <height>24</height>
  <width>48</width>
  <stageParams>
    <boostType>GAB</boostType>
    <minHitRate>9.9500000476837158e-01</minHitRate>
    <maxFalseAlarm>5.0000000000000000e-01</maxFalseAlarm>
    <weightTrimRate>9.4999999999999996e-01</weightTrimRate>
    <maxDepth>1</maxDepth>
    <maxWeakCount>100</maxWeakCount></stageParams>
  <featureParams>
    <maxCatCount>0</maxCatCount>
    <featSize>1</featSize>
    <mode>BASIC</mode></featureParams>
  <stageNum>3</stageNum>
  <stages>
    <!-- stage 0 -->
    <_>
      <maxWeakCount>2</maxWeakCount>
      <stageThreshold>-1.9707702100276947e-01</stageThreshold>
      <weakClassifiers>
        <_>
          <internalNodes>
            0 -1 0 -3.5673700273036957e-02</internalNodes>
          <leafValues>
            8.6206895112991333e-01 -9.8716300725936890e-01</leafValues></_>
        <_>
          <internalNodes>
            0 -1 3 3.5001937299966812e-02</internalNodes>
          <leafValues>
            -9.9141275882720947e-01 7.9008603096008301e-01</leafValues></_></weakClassifiers></_>
    <!-- stage 1 -->
    <_>
      <maxWeakCount>2</maxWeakCount>
      <stageThreshold>-3.4885478019714355e-01</stageThreshold>
      <weakClassifiers>
        <_>
          <internalNodes>
            0 -1 5 9.4691123813390732e-03</internalNodes>
          <leafValues>
            -9.7948718070983887e-01 7.8947371244430542e-01</leafValues></_>
        <_>
          <internalNodes>
            0 -1 1 -2.5536641478538513e-02</internalNodes>
          <leafValues>
            6.3063240051269531e-01 -9.9075502157211304e-01</leafValues></_></weakClassifiers></_>
    <!-- stage 2 -->
    <_>
      <maxWeakCount>2</maxWeakCount>
      <stageThreshold>-3.6317953467369080e-01</stageThreshold>
      <weakClassifiers>
        <_>
          <internalNodes>
            0 -1 4 1.8534351140260696e-02</internalNodes>
          <leafValues>
            -9.7938144207000732e-01 6.7213112115859985e-01</leafValues></_>
        <_>
          <internalNodes>
            0 -1 2 4.8967832699418068e-03</internalNodes>
          <leafValues>
            -9.7961258888244629e-01 6.1620193719863892e-01</leafValues></_></weakClassifiers></_></stages>
  <features>
    <_>
      <rects>
        <_>
          2 2 10 16 -1.</_>
        <_>
          2 2 5 8 2.</_>
        <_>
          7 10 5 8 2.</_></rects>
      <tilted>0</tilted></_>
    <_>
      <rects>
        <_>
          4 15 34 1 -1.</_>
        <_>
          21 15 17 1 2.</_></rects>
      <tilted>0</tilted></_>
    <_>
      <rects>
        <_>
          25 12 6 4 -1.</_>
        <_>
          25 12 3 2 2.</_>
        <_>
          28 14 3 2 2.</_></rects>
      <tilted>0</tilted></_>
    <_>
      <rects>
        <_>
          34 6 8 10 -1.</_>
        <_>
          38 6 4 10 2.</_></rects>
      <tilted>0</tilted></_>
    <_>
      <rects>
        <_>
          40 2 5 6 -1.</_>
        <_>
          40 5 5 3 2.</_></rects>
      <tilted>0</tilted></_>
    <_>
      <rects>
        <_>
          45 2 2 20 -1.</_>
        <_>
          46 2 1 20 2.</_></rects>
      <tilted>0</tilted></_></features></cascade>
</opencv_storage>
