<?xml version="1.0"?>
<opencv_storage>
<cascade>
  <stageType>BOOST</stageType>
  <featureType>HAAR</featureType>
  <height>24</height>
  <width>48</width>
  <stageParams>
    <boostType>GAB</boostType>
    <minHitRate>9.9500000476837158e-01</minHitRate>
    <maxFalseAlarm>5.0000000000000000e-01</maxFalseAlarm>
    <weightTrimRate>9.4999999999999996e-01</weightTrimRate>
    <maxDepth>1</maxDepth>
    <maxWeakCount>100</maxWeakCount></stageParams>
  <featureParams>
    <maxCatCount>0</maxCatCount>
    <featSize>1</featSize>
    <mode>BASIC</mode></featureParams>
  <stageNum>3</stageNum>
  <stages>
    <!-- stage 0 -->
    <_>
      <maxWeakCount>2</maxWeakCount>
      <stageThreshold>-2.3158122599124908e-01</stageThreshold>
      <weakClassifiers>
        <_>
          <internalNodes>
            0 -1 3 -2.3254230618476868e-02</internalNodes>
          <leafValues>
            8.2692307233810425e-01 -9.9030303955078125e-01</leafValues></_>
        <_>
          <internalNodes>
            0 -1 5 3.4705020487308502e-02</internalNodes>
          <leafValues>
            -9.9452173709869385e-01 7.5872182846069336e-01</leafValues></_></weakClassifiers></_>
    <!-- stage 1 -->
    <_>
      <maxWeakCount>2</maxWeakCount>
      <stageThreshold>-2.0140312612056732e-01</stageThreshold>
      <weakClassifiers>
        <_>
          <internalNodes>
            0 -1 1 4.5758634805679321e-03</internalNodes>
          <leafValues>
            -9.6666663885116577e-01 9.1011238098144531e-01</leafValues></_>
        <_>
          <internalNodes>
            0 -1 2 -2.1587276831269264e-02</internalNodes>
          <leafValues>
            7.6526355743408203e-01 -9.6735882759094238e-01</leafValues></_></weakClassifiers></_>
    <!-- stage 2 -->
    <_>
      <maxWeakCount>2</maxWeakCount>
      <stageThreshold>-4.0596762299537659e-01</stageThreshold>
      <weakClassifiers>
        <_>
          <internalNodes>
            0 -1 4 2.2123217582702637e-02</internalNodes>
          <leafValues>
            -9.9008673429489136e-01 5.5737704038619995e-01</leafValues></_>
        <_>
          <internalNodes>
            0 -1 0 -4.4648900628089905e-02</internalNodes>
          <leafValues>
            7.5910222530364990e-01 -9.6334469318389893e-01</leafValues></_></weakClassifiers></_></stages>
  <features>
    <_>
      <rects>
        <_>
          2 4 20 10 -1.</_>
        <_>
          2 4 10 5 2.</_>
        <_>
          12 9 10 5 2.</_></rects>
      <tilted>0</tilted></_>
    <_>
      <rects>
        <_>
          6 2 2 7 -1.</_>
        <_>
          7 2 1 7 2.</_></rects>
      <tilted>0</tilted></_>
    <_>
      <rects>
        <_>
          19 4 4 19 -1.</_>
        <_>
          21 4 2 19 2.</_></rects>
      <tilted>0</tilted></_>
    <_>
      <rects>
        <_>
          24 4 10 10 -1.</_>
        <_>
          24 4 5 5 2.</_>
        <_>
          29 9 5 5 2.</_></rects>
      <tilted>0</tilted></_>
    <_>
      <rects>
        <_>
          31 3 14 6 -1.</_>
        <_>
          31 3 7 3 2.</_>
        <_>
          38 6 7 3 2.</_></rects>
      <tilted>0</tilted></_>
    <_>
      <rects>
        <_>
          34 6 8 12 -1.</_>
        <_>
          38 6 4 12 2.</_></rects>
      <tilted>0</tilted></_></features></cascade>
</opencv_storage>
