<?xml version="1.0"?>
<opencv_storage>
<cascade>
  <stageType>BOOST</stageType>
  <featureType>HAAR</featureType>
  <height>24</height>
  <width>48</width>
  <stageParams>
    <boostType>GAB</boostType>
    <minHitRate>9.9500000476837158e-01</minHitRate>
    <maxFalseAlarm>5.0000000000000000e-01</maxFalseAlarm>
    <weightTrimRate>9.4999999999999996e-01</weightTrimRate>
    <maxDepth>1</maxDepth>
    <maxWeakCount>100</maxWeakCount></stageParams>
  <featureParams>
    <maxCatCount>0</maxCatCount>
    <featSize>1</featSize>
    <mode>BASIC</mode></featureParams>
  <stageNum>4</stageNum>
  <stages>
    <!-- stage 0 -->
    <_>
      <maxWeakCount>3</maxWeakCount>
      <stageThreshold>-1.2170373201370239e+00</stageThreshold>
      <weakClassifiers>
        <_>
          <internalNodes>
            0 -1 7 -2.1479107439517975e-02</internalNodes>
          <leafValues>
            8.8059699535369873e-01 -9.8984771966934204e-01</leafValues></_>
        <_>
          <internalNodes>
            0 -1 9 2.4946596473455429e-02</internalNodes>
          <leafValues>
            -9.7937613725662231e-01 8.3818608522415161e-01</leafValues></_>
        <_>
          <internalNodes>
            0 -1 3 -3.3198609948158264e-02</internalNodes>
          <leafValues>
            7.5218653678894043e-01 -9.9690276384353638e-01</leafValues></_></weakClassifiers></_>
    <!-- stage 1 -->
    <_>
      <maxWeakCount>3</maxWeakCount>
      <stageThreshold>-1.2636046409606934e+00</stageThreshold>
      <weakClassifiers>
        <_>
          <internalNodes>
            0 -1 8 5.6140664964914322e-02</internalNodes>
          <leafValues>
            -9.7419357299804688e-01 4.2500001192092896e-01</leafValues></_>
        <_>
          <internalNodes>
            0 -1 4 -1.8250912427902222e-02</internalNodes>
          <leafValues>
            5.6553500890731812e-01 -9.6636325120925903e-01</leafValues></_>
        <_>
          <internalNodes>
            0 -1 0 -1.7450427636504173e-02</internalNodes>
          <leafValues>
            8.7251639366149902e-01 -8.5494613647460938e-01</leafValues></_></weakClassifiers></_>
    <!-- stage 2 -->
    <_>
      <maxWeakCount>3</maxWeakCount>
      <stageThreshold>-1.4063889980316162e+00</stageThreshold>
      <weakClassifiers>
        <_>
          <internalNodes>
            0 -1 10 9.5627559348940849e-03</internalNodes>
          <leafValues>
            -9.7455471754074097e-01 6.5217393636703491e-01</leafValues></_>
        <_>
          <internalNodes>
            0 -1 2 -1.3521751388907433e-02</internalNodes>
          <leafValues>
            5.5679863691329956e-01 -9.7913503646850586e-01</leafValues></_>
        <_>
          <internalNodes>
            0 -1 6 -1.3451185077428818e-02</internalNodes>
          <leafValues>
            5.4730075597763062e-01 -9.8156052827835083e-01</leafValues></_></weakClassifiers></_>
    <!-- stage 3 -->
    <_>
      <maxWeakCount>2</maxWeakCount>
      <stageThreshold>-6.4125084877014160e-01</stageThreshold>
      <weakClassifiers>
        <_>
          <internalNodes>
            0 -1 1 -9.4831869006156921e-02</internalNodes>
          <leafValues>
            4.6341463923454285e-01 -9.8188877105712891e-01</leafValues></_>
        <_>
          <internalNodes>
            0 -1 5 3.2330080866813660e-02</internalNodes>
          <leafValues>
            -9.6663177013397217e-01 3.4063789248466492e-01</leafValues></_></weakClassifiers></_></stages>
  <features>
    <_>
      <rects>
        <_>
          0 22 44 2 -1.</_>
        <_>
          0 23 44 1 2.</_></rects>
      <tilted>0</tilted></_>
    <_>
      <rects>
        <_>
          2 13 36 3 -1.</_>
        <_>
          20 13 18 3 2.</_></rects>
      <tilted>0</tilted></_>
    <_>
      <rects>
        <_>
          8 9 10 4 -1.</_>
        <_>
          13 9 5 4 2.</_></rects>
      <tilted>0</tilted></_>
    <_>
      <rects>
        <_>
          16 12 10 9 -1.</_>
        <_>
          21 12 5 9 2.</_></rects>
      <tilted>0</tilted></_>
    <_>
      <rects>
        <_>
          19 5 4 11 -1.</_>
        <_>
          21 5 2 11 2.</_></rects>
      <tilted>0</tilted></_>
    <_>
      <rects>
        <_>
          23 3 24 6 -1.</_>
        <_>
          23 3 12 3 2.</_>
        <_>
          35 6 12 3 2.</_></rects>
      <tilted>0</tilted></_>
    <_>
      <rects>
        <_>
          23 10 12 3 -1.</_>
        <_>
          29 10 6 3 2.</_></rects>
      <tilted>0</tilted></_>
    <_>
      <rects>
        <_>
          24 6 14 6 -1.</_>
        <_>
          24 6 7 3 2.</_>
        <_>
          31 9 7 3 2.</_></rects>
      <tilted>0</tilted></_>
    <_>
      <rects>
        <_>
          33 8 10 9 -1.</_>
        <_>
          38 8 5 9 2.</_></rects>
      <tilted>0</tilted></_>
    <_>
      <rects>
        <_>
          35 0 8 14 -1.</_>
        <_>
          35 0 4 7 2.</_>
        <_>
          39 7 4 7 2.</_></rects>
      <tilted>0</tilted></_>
    <_>
      <rects>
        <_>
          37 10 4 4 -1.</_>
        <_>
          39 10 2 4 2.</_></rects>
      <tilted>0</tilted></_></features></cascade>
</opencv_storage>
