<?xml version="1.0"?>
<opencv_storage>
<cascade>
  <stageType>BOOST</stageType>
  <featureType>HAAR</featureType>
  <height>24</height>
  <width>48</width>
  <stageParams>
    <boostType>GAB</boostType>
    <minHitRate>9.9500000476837158e-01</minHitRate>
    <maxFalseAlarm>5.0000000000000000e-01</maxFalseAlarm>
    <weightTrimRate>9.4999999999999996e-01</weightTrimRate>
    <maxDepth>1</maxDepth>
    <maxWeakCount>100</maxWeakCount></stageParams>
  <featureParams>
    <maxCatCount>0</maxCatCount>
    <featSize>1</featSize>
    <mode>BASIC</mode></featureParams>
  <stageNum>4</stageNum>
  <stages>
    <!-- stage 0 -->
    <_>
      <maxWeakCount>2</maxWeakCount>
      <stageThreshold>-2.4227342009544373e-01</stageThreshold>
      <weakClassifiers>
        <_>
          <internalNodes>
            0 -1 11 1.5336049720644951e-02</internalNodes>
          <leafValues>
            -9.9033814668655396e-01 8.8235294818878174e-01</leafValues></_>
        <_>
          <internalNodes>
            0 -1 5 -3.6584965884685516e-02</internalNodes>
          <leafValues>
            7.4806475639343262e-01 -9.9737459421157837e-01</leafValues></_></weakClassifiers></_>
    <!-- stage 1 -->
    <_>
      <maxWeakCount>3</maxWeakCount>
      <stageThreshold>-1.3101309537887573e+00</stageThreshold>
      <weakClassifiers>
        <_>
          <internalNodes>
            0 -1 3 3.2527983188629150e-02</internalNodes>
          <leafValues>
            -9.7083836793899536e-01 6.7741936445236206e-01</leafValues></_>
        <_>
          <internalNodes>
            0 -1 9 -2.0440325140953064e-02</internalNodes>
          <leafValues>
            6.1928403377532959e-01 -9.4417476654052734e-01</leafValues></_>
        <_>
          <internalNodes>
            0 -1 2 -3.5935536026954651e-02</internalNodes>
          <leafValues>
            6.4255809783935547e-01 -9.5857656002044678e-01</leafValues></_></weakClassifiers></_>
    <!-- stage 2 -->
    <_>
      <maxWeakCount>3</maxWeakCount>
      <stageThreshold>-1.2580955028533936e+00</stageThreshold>
      <weakClassifiers>
        <_>
          <internalNodes>
            0 -1 1 -1.6364862024784088e-01</internalNodes>
          <leafValues>
            5.7575756311416626e-01 -9.7055214643478394e-01</leafValues></_>
        <_>
          <internalNodes>
            0 -1 6 3.0396115034818649e-02</internalNodes>
          <leafValues>
            -8.8847398757934570e-01 8.0386245250701904e-01</leafValues></_>
        <_>
          <internalNodes>
            0 -1 8 -7.8417488839477301e-04</internalNodes>
          <leafValues>
            6.7585283517837524e-01 -9.4537901878356934e-01</leafValues></_></weakClassifiers></_>
    <!-- stage 3 -->
    <_>
      <maxWeakCount>4</maxWeakCount>
      <stageThreshold>-2.1985180377960205e+00</stageThreshold>
      <weakClassifiers>
        <_>
          <internalNodes>
            0 -1 10 1.7467368394136429e-02</internalNodes>
          <leafValues>
            -9.3301433324813843e-01 5.8558559417724609e-01</leafValues></_>
        <_>
          <internalNodes>
            0 -1 0 -3.2743024826049805e-01</internalNodes>
          <leafValues>
            4.7929117083549500e-01 -9.4866520166397095e-01</leafValues></_>
        <_>
          <internalNodes>
            0 -1 4 3.0592465773224831e-03</internalNodes>
          <leafValues>
            -9.1211479902267456e-01 5.8164644241333008e-01</leafValues></_>
        <_>
          <internalNodes>
            0 -1 7 3.1640514731407166e-02</internalNodes>
          <leafValues>
            -9.4294893741607666e-01 5.9527635574340820e-01</leafValues></_></weakClassifiers></_></stages>
  <features>
    <_>
      <rects>
        <_>
          1 3 38 14 -1.</_>
        <_>
          20 3 19 14 2.</_></rects>
      <tilted>0</tilted></_>
    <_>
      <rects>
        <_>
          1 13 38 5 -1.</_>
        <_>
          20 13 19 5 2.</_></rects>
      <tilted>0</tilted></_>
    <_>
      <rects>
        <_>
          2 3 20 10 -1.</_>
        <_>
          2 3 10 5 2.</_>
        <_>
          12 8 10 5 2.</_></rects>
      <tilted>0</tilted></_>
    <_>
      <rects>
        <_>
          14 4 16 8 -1.</_>
        <_>
          14 4 8 4 2.</_>
        <_>
          22 8 8 4 2.</_></rects>
      <tilted>0</tilted></_>
    <_>
      <rects>
        <_>
          16 9 4 3 -1.</_>
        <_>
          18 9 2 3 2.</_></rects>
      <tilted>0</tilted></_>
    <_>
      <rects>
        <_>
          17 6 8 15 -1.</_>
        <_>
          21 6 4 15 2.</_></rects>
      <tilted>0</tilted></_>
    <_>
      <rects>
        <_>
          19 19 28 4 -1.</_>
        <_>
          19 21 28 2 2.</_></rects>
      <tilted>0</tilted></_>
    <_>
      <rects>
        <_>
          22 2 24 8 -1.</_>
        <_>
          22 2 12 4 2.</_>
        <_>
          34 6 12 4 2.</_></rects>
      <tilted>0</tilted></_>
    <_>
      <rects>
        <_>
          23 11 2 2 -1.</_>
        <_>
          23 12 2 1 2.</_></rects>
      <tilted>0</tilted></_>
    <_>
      <rects>
        <_>
          24 6 14 6 -1.</_>
        <_>
          24 6 7 3 2.</_>
        <_>
          31 9 7 3 2.</_></rects>
      <tilted>0</tilted></_>
    <_>
      <rects>
        <_>
          36 4 10 4 -1.</_>
        <_>
          36 6 10 2 2.</_></rects>
      <tilted>0</tilted></_>
    <_>
      <rects>
        <_>
          36 9 6 5 -1.</_>
        <_>
          39 9 3 5 2.</_></rects>
      <tilted>0</tilted></_></features></cascade>
</opencv_storage>
