<?xml version="1.0"?>
<opencv_storage>
<cascade>
  <stageType>BOOST</stageType>
  <featureType>HAAR</featureType>
  <height>24</height>
  <width>48</width>
  <stageParams>
    <boostType>GAB</boostType>
    <minHitRate>9.9500000476837158e-01</minHitRate>
    <maxFalseAlarm>5.0000000000000000e-01</maxFalseAlarm>
    <weightTrimRate>9.4999999999999996e-01</weightTrimRate>
    <maxDepth>1</maxDepth>
    <maxWeakCount>100</maxWeakCount></stageParams>
  <featureParams>
    <maxCatCount>0</maxCatCount>
    <featSize>1</featSize>
    <mode>BASIC</mode></featureParams>
  <stageNum>3</stageNum>
  <stages>
    <!-- stage 0 -->
    <_>
      <maxWeakCount>3</maxWeakCount>
      <stageThreshold>-1.2447657585144043e+00</stageThreshold>
      <weakClassifiers>
        <_>
          <internalNodes>
            0 -1 5 3.9833895862102509e-02</internalNodes>
          <leafValues>
            -9.8639458417892456e-01 8.6440676450729370e-01</leafValues></_>
        <_>
          <internalNodes>
            0 -1 6 6.5319561399519444e-03</internalNodes>
          <leafValues>
            -9.8068702220916748e-01 6.6941702365875244e-01</leafValues></_>
        <_>
          <internalNodes>
            0 -1 1 -3.0901808291673660e-02</internalNodes>
          <leafValues>
            7.2231578826904297e-01 -9.9616700410842896e-01</leafValues></_></weakClassifiers></_>
    <!-- stage 1 -->
    <_>
      <maxWeakCount>2</maxWeakCount>
      <stageThreshold>-4.2093724012374878e-01</stageThreshold>
      <weakClassifiers>
        <_>
          <internalNodes>
            0 -1 3 -5.4612797684967518e-03</internalNodes>
          <leafValues>
            5.7746475934982300e-01 -9.8893499374389648e-01</leafValues></_>
        <_>
          <internalNodes>
            0 -1 0 -5.2778692916035652e-03</internalNodes>
          <leafValues>
            5.6799775362014771e-01 -9.8817014694213867e-01</leafValues></_></weakClassifiers></_>
    <!-- stage 2 -->
    <_>
      <maxWeakCount>3</maxWeakCount>
      <stageThreshold>-1.3547694683074951e+00</stageThreshold>
      <weakClassifiers>
        <_>
          <internalNodes>
            0 -1 7 9.5080286264419556e-03</internalNodes>
          <leafValues>
            -9.6739131212234497e-01 6.5517240762710571e-01</leafValues></_>
        <_>
          <internalNodes>
            0 -1 2 7.0093840360641479e-02</internalNodes>
          <leafValues>
            -9.5975106954574585e-01 5.9390550851821899e-01</leafValues></_>
        <_>
          <internalNodes>
            0 -1 4 -1.7021284438669682e-03</internalNodes>
          <leafValues>
            5.7237285375595093e-01 -9.9045884609222412e-01</leafValues></_></weakClassifiers></_></stages>
  <features>
    <_>
      <rects>
        <_>
          6 10 12 1 -1.</_>
        <_>
          12 10 6 1 2.</_></rects>
      <tilted>0</tilted></_>
    <_>
      <rects>
        <_>
          18 8 6 13 -1.</_>
        <_>
          21 8 3 13 2.</_></rects>
      <tilted>0</tilted></_>
    <_>
      <rects>
        <_>
          21 1 26 10 -1.</_>
        <_>
          21 1 13 5 2.</_>
        <_>
          34 6 13 5 2.</_></rects>
      <tilted>0</tilted></_>
    <_>
      <rects>
        <_>
          25 11 3 4 -1.</_>
        <_>
          25 13 3 2 2.</_></rects>
      <tilted>0</tilted></_>
    <_>
      <rects>
        <_>
          26 12 4 1 -1.</_>
        <_>
          28 12 2 1 2.</_></rects>
      <tilted>0</tilted></_>
    <_>
      <rects>
        <_>
          33 6 6 13 -1.</_>
        <_>
          36 6 3 13 2.</_></rects>
      <tilted>0</tilted></_>
    <_>
      <rects>
        <_>
          35 13 4 4 -1.</_>
        <_>
          37 13 2 4 2.</_></rects>
      <tilted>0</tilted></_>
    <_>
      <rects>
        <_>
          41 12 4 4 -1.</_>
        <_>
          43 12 2 4 2.</_></rects>
      <tilted>0</tilted></_></features></cascade>
</opencv_storage>
